{'name': 'model/conv1/Conv2D', 'index': 5, 'shape': array([8, 3, 3, 3], dtype=int32), 'dtype': <class 'numpy.int8'>, 'quantization': (0.0, 0)}
[[  0  44   5 -60  30 -47   5  80]
 [-99  49   0  79 -19 -51 -50  72]
 [-75  -4 127  81  -6  30  -9  51]]
[[ -36   31   56   28  106   92   92  -52]
 [  -2 -108   15  107   46  -94  127   85]
 [  -1   24   55  -93   47 -127 -113 -124]]
[[  86   34   63    2  -56  -61    6  112]
 [-107  -14  102  123   97  -51  -50   39]
 [ -32  -65  104 -118  127   40 -120   48]]

[[  -4  -15  -19 -105 -106   96   32  -46]
 [  66   65   31  103  -19  -97   13   68]
 [   1  -89  100   -2  -95 -121   37  -69]]
[[  25  -34  -76    2  112   56   18   43]
 [ -40  127    6  127   39    4  -22  -67]
 [  60 -106   75   85   42  -94  -44    2]]
[[ -15  -23  -45   29  -41  -93   14  -56]
 [  76  -36  116  -49   81  -90  -74   81]
 [-127    5  -31  -74  -82   64  -69  -75]]

[[  90    4   59  -50  -99   52  -83 -111]
 [ -62  -54  -22  -26 -107  -46   73    6]
 [-110  -30  102   89   58   33  -22   15]]
[[  99  112  -25 -123  -35  115  -28   76]
 [  72  120   66  105   29  -88  -87  127]
 [   1   28  105   42   79 -122  -73   42]]
[[ -61   79  -19   28   60   29   89  -91]
 [-104   -4   20   88   59  -62   37   19]
 [  77  -61  -51  -38   30  -56   37  -64]]



{'name': 'model/conv1/BiasAdd;model/conv1/Conv2D;model/conv1/BiasAdd/ReadVariableOp/resource', 'index': 6, 'shape': array([8], dtype=int32), 'dtype': <class 'numpy.int32'>, 'quantization': (0.0, 0)}
[-474 2759  250 1511 1241 2064 -940 1457]	

{'name': 'model/prelu1/add;model/prelu1/Relu;model/prelu1/Neg_1;model/prelu1/Relu_1;model/prelu1/mul', 'index': 7, 'shape': array([1, 1, 8], dtype=int32), 'dtype': <class 'numpy.int8'>, 'quantization': (0.0007228621980175376, 0)}
[[[ -9  24 -21 -11  59 127  -9  17]]]	

{'name': 'model/conv2/Conv2D', 'index': 8, 'shape': array([16,  3,  3,  8], dtype=int32), 'dtype': <class 'numpy.int8'>, 'quantization': (0.0, 0)}
[[ -22  127   24  -55  -67  -59  -42   64    2   33  -29  104   59   28
    28   62]
 [  85  -23   19   74  112  -41  -13   85    2   -1   85   60  -85  -45
   -86   53]
 [   2 -125  -23   30   66  -16   -9   60   33 -105   84   -7   11  -56
    70   59]
 [  63  -21   71  -29   47  -72   68  -67    6  -36   53   42  100   65
    91  -21]
 [  65   40  -89    8   52   98  -95   10  -65   43  -19  115   36  -26
    -8   49]
 [  52   85  -12   75    7  -13  -29   -5   46   75   39  -34   86  -94
    -5   95]
 [ -82  -71   60   75   80  109   28   98   32   57   66   56   72 -105
   -75  -13]
 [  13   29   98  -36   61   -5  -22   22   66   55  107  103  -86  -77
    33  -50]]
[[  -3   32   54  -50  -24   41   66  -72   94  118   62 -113  -10  -80
   -60   88]
 [ -37  -34   93  -82  -38  -27  -72  -11  127  -34   49   53    6   70
    44  -92]
 [  -5   55   54  110  -28  -44   10  -70   66  -15    0   53   92  -83
  -103  -14]
 [-113  -51   45  -88   -5   58   16  106   76  -67   85   89 -124   94
   -64   -3]
 [ -80  -66   37   -7  -86  100  127  -13   37  -76   54   95  121   67
  -104  -24]
 [ -18   21  107  101  -70  -89   28  -23  -20   16  -64  105   92  -82
    44   63]
 [  -9   93  127  -87   68   47  -44  118   67   26  -68  -97  -79   61
   -12   96]
 [  65  -31  117  -18  -18   52  -56   11  -19   21  -74   35    3   57
    79   57]]
[[ 124   41  -56  -46  -56   65  -53  -93  -25  -87   36  109  -68   37
   -19   -8]
 [  17  106   84   36  127  -90   76  -72   95 -122    9  -32 -115  -98
   127  -94]
 [ -82   52   15   -9  -72  -80  111  -76   65   90  -45   22   55   63
    90   76]
 [   0  114   28   15   69  127    1   93  106  -13  -16  -87   50  104
    -4  -11]
 [ -80  -97  100  -15   15   83  -78   88   40 -127   82   70   44  -15
   -64   65]
 [ 110   93  -75   37   18   26  -36  -32   31  -26   -2 -114   22  -42
   -93  -37]
 [  48  -14  -19    8   -5   -1   26   94   31   70  -38   43   72  -55
    -4  -10]
 [  24   -3  -16  -18   -2  -15 -104  -11  -34   93   64  -38 -108   10
    18  -14]]

[[ -61   99  121   45   36  -14  -72   21   93   32   74   67  -36   79
   -45  110]
 [ -23   80   37  -71  107  -40   81  -69  -74  -24  127   32  -64  -32
   -40   92]
 [  94  116  -55  -13  -72   54   22   96  -52  -47  -51   62   66  -34
    34   89]
 [   6  -74   49   23   92   91    4   39  -14  -15   91   82  -97   98
   -47 -116]
 [  23   20   49   79   26 -103   14   15   -9   91  -50   44   26   36
   -18  -15]
 [ -89   47  -16   51   27   84   74  -86   10    7    3   75  113  112
   -12   28]
 [  71  114  -33   94  -11  -14   32  -65   25  -23  126  -25  -84 -102
    83   10]
 [  30  -35  109   62    7  -37   83  -93   19  -16    5   13  112  -94
    21  -76]]
[[  12   31    8  -69    0  -83   28  -80  -50  114  -19    4   39  -31
   -98   34]
 [ -80  -91  -16 -111   22  125   -7  -22  -69 -121  113   46 -124   44
   108   11]
 [  68   83   17  -62   73    7   37   58    2   88  -22  -66  -69  -30
    -5  -55]
 [ -34   89  112   71  -34   16    1   33  -50  -73  -65   70   81  -97
   -69  124]
 [ 116  -73 -113   98   21  -71   76  -39  -20  -57  -52  -49   67   22
    62   60]
 [ -24  -53   63   58   59  100  -63  106   -1  -31   83   64  -45   47
    64  125]
 [ -20  125  -25 -101  -22  111  -42   25  -46 -110  -28  -93  -35  -35
    27  -17]
 [ -45   83  -79  -65   64  -52   83  118  -77   58  -13  -38 -127  -11
    11  -76]]
[[ -59   56   78   83  -33   51  -63    0  -27   79  -39  -79   44  -42
   -87   52]
 [  79   37   93   52   83   90  -50   -2   80  -84  -16   60  -54   65
   -29  -26]
 [  65  -12  -23  -34  -33  -69  -47   22  -91  -29  -22    3  -17   42
    75   38]
 [ -92  -11  117  -83  114  -61  -88  121    0  -96  -18   37   73  125
     3  127]
 [  65  -19   16  116  -68   97  -32   58  -15   86  -93   31  -87  -78
  -108  -17]
 [ -42  -54   94  -47   -4   63  -63   15   46   28   51 -103  -97 -127
    13 -119]
 [  43   94   -5  -83  -50   56   66  118   33 -106   81  -70 -105  -26
    65   57]
 [ -86   21   95   63   27   58  -22  -13  -67  112   89   23  -87  -25
    32  -27]]

[[  -1   52  114  -15  114   67  -22   58   55  100   50  -70  -71   67
    51   91]
 [  66   33  -29  -63  -51   67  -18   91  -81  -16  116 -100  -82  -34
   110  -91]
 [   8  102    9  127  -15   38  -67   36  -22  102   53  -74   98  -35
   -55    6]
 [  33   82   18  -68   16   37   -4  -39  -29   34   69  -20    9  -56
   -65   18]
 [  32  -28   51   61   32   97  -88   33  -32  127   -6  -42   23  -73
    88  -35]
 [ -50   -3  -26  -72   24   44  -49   27   11 -100  -55   58  -22    9
    43   64]
 [-114   52   66   12  -33   29   15  124  -20  -54   15   56   19  -91
   -84    8]
 [  78   38   -1  -59   58   93  -13  -27  -59  -88  119   -5   62   51
    65   39]]
[[  30  -71  -85  -22   75   28   65  -72   11  -89   36   96   51   19
     6    9]
 [ -86 -100   13  -25  126  120   43  -38   85   34   90  -70  -35    0
   101  -94]
 [  63   48    3  -17   28   76  113   34   40  120  -80 -117  -83   28
    16  -35]
 [  -1   24    7  -57    8  -27   56  -29   38  -36   49  -52   95   91
    57  101]
 [ -91 -125  -74  100  -75   19  -40   -9  -49   51    6   29   72  111
   -82   48]
 [ -80   78  -25   57   10   35  -39  102  -82  -89   -6  -82  -69   22
     6  -60]
 [  57 -100   36   43   14   81   62   86  106   34   96   43   39  -21
    51 -101]
 [ 108   77  -32  -82   15   -7   68  -86   92 -127  -57 -125  -36   70
   122  -89]]
[[ -74   45   97   82   45   80    0   25   68   26   42 -102  -19   73
   117   29]
 [  16   61   68  -67   73    8 -106  -36  -60   77  -29 -105  -43  -79
    27 -116]
 [ -44   79   24  -58   -8   -3  -59   37   84   89   49    6   49  -58
    46  -20]
 [ -81  -46   38  -44  -59  -48   56  127   71   30   98 -127 -111  118
   125  -10]
 [ -17 -105  -84    4   11   78  -36   12  -31  -98   40 -108   64   77
   -63   53]
 [ -30  -87  -42 -104  -83   61  -27  -32  -96   52  -96  116   73  -88
    41  114]
 [ 127   19  -62  -99   74  -58  -22  -18   53   13   -1  -46   83  -75
   114  -53]
 [  65   79   26  -77   69   19   29  100   78  100    1   66  -40   64
     5 -101]]



{'name': 'model/conv2/BiasAdd;model/conv2/Conv2D;model/conv2/BiasAdd/ReadVariableOp/resource', 'index': 9, 'shape': array([16], dtype=int32), 'dtype': <class 'numpy.int32'>, 'quantization': (0.0, 0)}
[ 1984  1305   736  1750  1416 -1097  3662   538  -476  2748   219   496
  3528  2989   867  3994]	

{'name': 'model/prelu2/add;model/prelu2/Relu;model/prelu2/Neg_1;model/prelu2/Relu_1;model/prelu2/mul', 'index': 10, 'shape': array([ 1,  1, 16], dtype=int32), 'dtype': <class 'numpy.int8'>, 'quantization': (0.000510968326125294, 0)}
[[[ 78 -33  31  72  75   0  36   7  28 114  94 -53  57  27 127 -48]]]	

{'name': 'model/conv3/Conv2D', 'index': 11, 'shape': array([32,  3,  3, 16], dtype=int32), 'dtype': <class 'numpy.int8'>, 'quantization': (0.0, 0)}
[[  25   67  -49   63  -25   36   19   -9  -34  -14   28   -7  -86   25
   -55  -23  -61   24   57   13  -98  -73   12   -9   -5  -87 -109  -34
     5   14 -104  -86]
 [  10   51  -95  -74  -31   98    5   61   14   67   89  -48  -71  -15
   -74   18   15   76   82    3    8   33    1   47 -103    7 -106  -11
     7  -66   89  -30]
 [  44   61   -9  -28   47  -13   31  -52  -48    5  -47   60  -36  -44
   -29   66   -8   32   57    3    3   93  -89  -45  -82  -38  -54   41
    83   79   16   32]
 [ -18  -56  -87  -14   27  -14  -16    2  -92  -12 -118   42   70   -5
  -127  -81  -98   90   77  -40  -25   83  -62 -127  -38  -89  -78   35
   109  -96   51  -68]
 [  -9  -54   59  -23  108   84  -25   -7  127 -102   50   39  -19   89
    90  -66   -6  -31    5   80   50  100   66   12   61   81   74   39
   -34   36  -62   64]
 [  92  -69  -56   51   86  -39   64  -20  -81  -90   67    8   91   79
    24  -56   55   36   73  -88   83   -7  -21   35   91  -71   72   38
    24  -39  -70 -105]
 [ -66   75  -53  -27  -18  -29  117   53  -30   49   10   86  -28   82
   -43   34   69 -100  -36 -127   -9  -70  -30   30  107  -20   70  -30
    73   -9   -8  -50]
 [  27  -41   23   54   68  -40  -52  107   86  -47  -11   14  -78   30
    -8  -65  -22   72  -39   36   -5  -68  -56   53  -33   61   49   19
    88   57  -83   80]
 [ -56  -19   14  -17  -38   -2  -10   30   95  -48  -57  105  -94  -34
    31 -103   32  -15   40   11   59  -64   55   44  -64   11  -44   97
    -7  -37   85  103]
 [ -37 -114  -12  -65   34   -9   -5  -27  -35  -94 -120   80   33   38
     9   16   61   97  -73  -11  -38   13  -33  -77   20   34   52  -91
   -38 -127   -1 -103]
 [ -52   60   78   33   58   42   17  -46   69  -13   42   20    5  -43
    49  -17   61   17  -69  -51   12    0   -1  -10  -30   98   46  -87
   -27  -53   49  -29]
 [ 100  -39   -6    8 -113   -5  -47  -96  -12 -100  -60   81   30   -8
   -71   49  -36   61  -52  102  -15   37  -65  -95  -39   65  -55 -104
   -62   34  104   58]
 [ -54   -2   89 -107   62   38  -94  -28 -108 -110  -57   29  -69  -73
    35  109   41  -17   56   83  -70 -109  -55  -10  -90  -86  -78   54
    11 -101   80  -94]
 [  16  -45   49   17   78  -54  116    3    3  -12  -31    0   15    4
    14  -91   -4  -50  117  -74  115   79  -63   67   52  115  -24  -34
   -62   -2   69 -106]
 [   4  -21   46  -23  -59  -19  -16 -105   45  -55   34   26   87  114
   -17   21   -5  -69   58  -37  -71  -41  -17   76  -57   12  -25   60
    40  -14   38   36]
 [  93   18  -15   41 -127  -18  -46   31   69  -46   27  109  -54  -63
   -35  -25  -44   99  -67  -47  -55  -33   27   -7   -6  -31   71  -55
    30  -12 -101  -17]]
[[  -3  -65    9   80   41  -18   16  -24   -8   63  -21   36  -67  -81
   -79  -18 -105  -37   55  113   -5  -23  -46  -59   34  -56  -94  103
     8  -74 -105  -33]
 [  82   -1  -26   23   82  -59  -80   11  -58 -127  -35  -27   15   78
    40  -70  -28   67   49  -68  -23  -45  -58   87   74   24   77 -104
   -64  -43  -87  -28]
 [  37   50   68    7 -118  -29   49   55  107   69  -57   84  -52   68
    44   37  -32   41  -46 -101  -39  -77  -60   18   24  103  127   -8
    75  -47  -45   78]
 [  32   15   48   70    2   53  -42   73   34    2  -17   -4   87   -6
    39  -51 -113   24 -107  -82  -66   12   64   50 -101  -54  -12 -124
   122  -56  -70  -47]
 [ -92   25    6  -31   43  -26   30  -43    6   70  121    8    7  111
   103  -23  102   48    0  -15  -66  -18  -34   22    9  127  -31   71
     2    3   73  -12]
 [  54  -61   58    5  -91   97   89   93   94  -85   75   33   58    4
    12   25   59   81  -92  -80  -39   -9  -21  -90   81  -49  -44   77
    10   82   50  -80]
 [  58   42  -45   40   78   73   77  111   30 -112   58   63   12  -20
    35  127   43  -58  -97  -95   65  -66   25  -49  -79  -87  -91   35
   -69   -5  -26   66]
 [ -45  -11   46  -55  -72  -22   48  -55  -35   77   92   82  -12    1
   -13   78   52   -8  -47   39  127   69  -31   95  -42    6   98  -49
    10    7  102   99]
 [ -77  -77   77  -67   21  -60  -33  -79  -70  -82   50   -7   98   46
   -52  -63  -52    6  105   93   16  -66   38  -51    8  -12  -79  105
   -23  -38   -6  -71]
 [ -24  -69  -50  -62  -54   77  -56  -73   -7  -52  -45   19  -49  -56
   -16  -14  -86    0   75  126 -105  -74 -106    7   44   57  -96   73
   -29  -48    6 -124]
 [ -77  -34   88   19   61   47    9  -67   54   19  -17   86 -118   36
   108   26   13   17 -127  109   69    1  -75  -40  -60   99   44   86
    17   47  -48   49]
 [ -51  -22  -60  -83   60  -25  -47   34  -67  -94 -127   69   63   37
   -63  -61   89   20  -98  -89   72   67  -30   83  -52   16  -56  -55
   -15  -69  -30  -84]
 [ 103  -45   36  -17   48  -68  -99  127   15   53  -27  -46   89  -99
   -12   19  -62   44  102   32  -29  -91  -64  -87 -100  -70  -32  -43
   -43   86  -14  -84]
 [ -33  -41  -47  -30  -29    6   26   -3    6   44  -60   71  -80   80
    17  -12  -17   42   63   58   48   44   39   54   30   61  -39  117
   -52   23   45   89]
 [  76  -35  -20  123   36   -9   30  -16   -5   27   79   23   34   99
    62  103   91  -45 -115   68   -4   20    2   63  -44   81   42  -34
    46   86  -17   73]
 [  50   49  -87   52  -32   60  -46   95   -5    4   77   67   25    2
   -55   90  -77  -20  -86  -59 -103   58  -58   21   34   -8   76   17
    78  -54   45  -74]]
[[ 113  -46   30  -62  -26  -43  -54  -28  -72   33    5   87  -81  -99
   -42   36  -84   57   39   32  -73   50  -81  -22  -18 -110  -77    1
     7  -77  -34   20]
 [ -53  -51   41  -36   62   20  -42  -12  -24  -24  -28   91   18  -17
    50  -47   16  117  -71  -42  -33  -78  -92   62   69   24   48  -63
   122  -64   19   52]
 [  34   72  -49   63  -12   39   -2  -30  -55  -30   -8  -57 -106   56
   -36  -26  -43   32   64  -22  -65   53   61  -86   70  -59  -11  109
   118   -7   -7 -120]
 [ -13  -85  -36  -96   59  -45  -36  126   20 -100  -29  -34   78  -40
   -60  -82   64   80   -2  -47  -10    3  -35  -38   12  -46   92 -104
   -87  -53    6 -103]
 [ -29   64  -30   37   46   51   -4   31   64   85   68  -87 -108   79
     2   61   65  -60   61  -62   73  -51   77   37   48   86  -23   30
   -77   67   36   18]
 [  85   29   55   80  -41  -76   52  -12   77   67   94   42  -86  -62
   -67   28  -40   23  -57  -83   65  -97  -83   59   13  -22  -59  -58
   -47   87  -49  -28]
 [ -69  119    5   53   64   75   94   -9  -38   43   51    3  -98  -29
   -44 -115  -31  -71  -31   -4  -32   54  -64  -54  -55   12  107    1
   -27   22   -8  -21]
 [  84   48   -3   65   87    1  -44  -12   73   36   -2   31  -33  -60
    83  -88  -15   28  -48  117   12   -3   32   74  -91   73    9   -1
   116  -29   -4   80]
 [  48   16   18  -70   79   56   89  -44   36    6    7  -76   60   18
    21  -70   -3   91  102 -103    2  -26   -2   66  -48   68  -36   78
   -62  -38   96   -4]
 [ 124   38  -87  -52  -38  106    8   65   75   -2  -34   86 -109  -27
   -37   67  -30  127  -62  -60   62  -75  -27  -44   22   53  -31  -42
    39  -53  -56   10]
 [ -27   14   75  127  -78  -34   26  -74  -46  -66  -31 -107 -106  -37
   114   30   70   47  -52   39   24   55  -61  -19  -36   82   28   63
    64  127  -86   10]
 [  44   60   42  -49   -7  107  -40   -6  116   11  -32  -20   51  -61
     9    3  -52   93  -43  -56  -32  -85  -61  -13  -23  -56    1  -44
   -69  -82  -52   37]
 [  43  -63  -56   81   83   95   35   52   -1 -111   17   43  -79  -54
   -29   47  -23   50   83  117  -83  -30   50   19 -105  -23  -39   55
   -10   64   -8   41]
 [-108   84  -24   24   82   43  127  -90    6  -40   20  -59   86  -48
   -16   20  -27  -15  -62  -19   79  -71  -39   90   -3    2  -23  103
   -32   64  -33   21]
 [  20  -47   65   51   43  -55  -27   10  -58   51    3  -80  102   53
    98   19   25  -11  -50  -29    2   13   37   -9   56   30    8 -115
   -33   66  -25   96]
 [ -13   71   58  -69  -23  -73  -31   62   17   48    9   33   60   23
    76   -7  -16   21   48  -48   72  -92  -82  -69    3  -28   86 -112
   -84  -12    6 -104]]

[[   4  -30    6    3   83  -62  -36   74   17    1   77   79   20   66
    23  -11  -48   21   57   19  -65   30  -92   61   33   42  -65  -44
   -96   26   -5   88]
 [  -7   51   34    9  -48  -63   22   81   88   52  -21  -55 -102  -48
   -19    7  -12    0  -82  -10  119  -45    1   86  -46   24   45  -47
   -37   -9  -91  -19]
 [  53   36    6   56  -32   -2  -63    2   64   51  -57   -5   -1   24
   -30   58   33  -40   89   22   88    7  -36   96   40  -21   54  -61
  -103   67   -7  -74]
 [  73  -30  -59  -23   37   30  -30   72   17   46   25   47  -61  -69
   -51  -46  -11   63    7  -33   60   51  -86 -120 -110    1  -89    3
    55  -13    1   53]
 [  16  106  -47   49   59  102   95   24   -2  -16   98   10  -62    2
   102  -21   38   12  -58  -85   59   74  -57   99  -36   65  -56   98
   -23  -12  -10  -60]
 [  85   -7   37  -91 -108   53  -38    9  -42   69   86   41  -53   -7
   -17   85  -58   82 -116  -45  -80  -23  -33   27  -48  -42   73    1
   100   46   15 -102]
 [  54  -25   -2   45  -19  -60   30   31   62  -13  -20   29  -20   60
   -85   99  -34  -50   67   81   82  -18   -2  -10  -10  -13  -69  114
   -58  -47  -23   51]
 [ -15   34   13  -55  -59  -46  -77  -49   10 -123   78   26   88  -73
    76   76  -22   12   97   -9  -98  -10   21  -89  -15  -43  -18   40
   117   78   69 -107]
 [  -5    4  -33  112  100  -42   44  -37   23 -114   48   72   68   93
   -46    0   65   57   78  -28  106   73  -12  -34   23  -44  -44   62
  -101  -13   66  110]
 [ -47   28   51   11  -42   49  -25  -52  -61  -60  -31   62  -23   13
   -47   18   46   -5  -31   84  -17   56  -78  -14    2  -40  -49  -32
    77   48   56  -96]
 [ -10  -24   13  -39  -41   37  105    1   35    8   21   77  -29   32
    34  -37   -8   15   84  -78   28  -64  -66   44   30   95  -56  -94
    74  -62   71  -71]
 [  67  -45  -57  -39  -35  -36  -37   92   74  -39  -39  -58   58  -10
    10   -6  -47   63  119   75   66   94    4   71  -11   43  -22   50
   -37   39  -27  -92]
 [  64   17  -87  -51  -54   57  -16   25  -40  -86  -78   59   51   -5
   -93   38  -57   72  -44   51  -29  -14  -21  -80 -127  -23 -104   31
    33   53  -74  -30]
 [ -53  115   55  -52   51   75  -39  -61   26   63  104  -14   79   22
   -21    3    9   25   12   64  -10  -57   79    0   52   65   28    6
   -45   29   94  -99]
 [  58   48   51    1  -52   35    8   20   -3  -72   32  -85   25   81
     7   43  -45  -72  -25    5   75  -35   23   94   76   17  -31  -73
    39   90  -18    5]
 [  67   17  -42   56  -63   92  -42   87   -5   53    9  -67   94   57
    41   57   63  -25  -75  -83  -65  -63  -54   -4  -58  -45   88  -32
   -39   75  -38 -113]]
[[  87  -12  -30   11  -58   34  -47   14  -22   42    9  -63   31   -1
    60  -25   58   69   65   83   32   28    4  -58  -66   -6   87   33
    22   59  -57 -109]
 [  47   25   83    9   67  -56   49  -28  -18   80   47  -42   68   43
    75   85   52  -19   69    5  101  -70   63  -34   23  -40  -87   50
   -62  -57  -48   87]
 [ -55   71   77   79  -67  -52  102   50   42   53   99   57  -58  -35
    89   76   34  -37   31  -46   -3   21   53  -32  -17   73  -65   72
    19   85   43   94]
 [  18  -81    8  -48 -102   -3  -74  -13  -91 -126  -16   -3  -50   10
    21   34   17    1   90   91  -36   50   21  -85  -86  -76  -91 -126
     1  -35   73 -110]
 [  30   35   34  120  109   28   73  -25  -38   21   69  -45    5   48
    57  -45   65  -11  -26   17   80   25  -43   63  -95  113    0    4
   -58   14  -91   87]
 [ -72  -28   41    8   92  -49   13   63   55  -48  -72  -51  -88    1
   -20  -78   50   11 -122    3  -22   18  -28   85   39   93  -75   -6
    31  -56   73   85]
 [  10    4  -35   22   71    5  -35  -22 -113 -118  -83   17  -38  -92
   -72   99   66   20 -108   94   53   46  -33   67  -39  -83   58   37
    17  -96   15  -12]
 [  18  104   78   75 -113   84  -16   -3    4   79  -70  -92   14  100
    67   70   85   92  -70  -11   27  -22  -53   70  -18   70   75  -18
  -102   82    3   12]
 [  -3  -38  -43  107  -62  -20    4   73    0   32   -3   68  104  106
   110   51   93   47  -98   -1  126   24    6  -76  -69   26  -60  -41
   -25  -59   72  -59]
 [ -26   85   44  -91   88  -44  -50   72   89  -76   44  -80 -112  -18
   -57  -83  -61   79   -1  -90  -31   22   65   31  -24 -113   69 -127
    90 -112   -7  -65]
 [  58   73  -73  -60 -104   92  116  -25   36   67  -21  -14   69    6
    31   -2   40  -11   82  -56   53   -7    0   39   51   61  -50   47
   -40   34   21    7]
 [ 118  -70  102  -26   66  -11   -3  -75  -79   54  -52   42   66  -75
   -25   29   99   51   44   91   84   45   61  -81  -39  -22  -52   33
    49  -55 -106 -124]
 [  67   -7   58  -83  -91  -12    0   10  -58   30   50  -40   12  -36
     4   24  -44   97  -54    4    0  -56  -84  -45  -78  -20   -5  -32
   127  -47  -14   -8]
 [  75   96  -59   61  -77  -19   33  -59    0   -4  -45   58   91    6
    79   56   23   -3  -39  -82   -2  -65   -3   22   64    9   56  110
    65   63  -31  105]
 [  64  -12   82   76    0  -30   22  -51  -55   30   34 -106  -50   44
   -68  -35   86   14   78  -53   65  -62  -20   75   16    8  -27   38
   -76  -28  104   35]
 [  21   34   77   59  -98   32  -49   63   40   32  -55   77  -76   -6
     2  -94  103   27  -19    4   53   18  -64    4  -63  -17   15   21
    71   77   62 -102]]
[[ 127   27   -9    6  -79   -8    0   98   10   28  -83   72  -70   14
   -98  -57    3  -12  125  125  -76  -55  -19    7  -63   55 -119   86
   -20   38  -72  -23]
 [ -13  -24   57    1  -37  -40  -26  -14   26  -79  -42  -51  -41   70
    -6   63  -76   64   98  -21  -75  -39   60  -50  -36  -69   81  -36
    17   45   96  -46]
 [  79  -21  127   53  -95  -46   87  -14   63  -70  100  -40  -87  126
     1   98   85   53  -34   11   33  -34  -41   76   87   36  -11  -28
    40  -47    4    7]
 [  73  -16   48  -72 -121  -64   10  -21  -48 -120   91   -1   34   17
    57   61  -51   10   56   54  -46   -1  -31   69   65  -52   70   30
   -80   79  -28   -9]
 [ -49   43   72   17   82   26   96   39   56   56   40  -43  -91   -8
    82  -10  -85   13  -86   -8   -6   67  -24   26  -48   61   77  -53
   -47 -106  -38   18]
 [ -69   90  -67   -3  -51   31   30   21    5    5  -45  -51   24  -77
    85    0    0  -40  -10  -39   79  -58  -80  -24   21  -19  -26  -30
    93   -6  -98  -32]
 [  29   37   28  -50 -115  -10  -40   14  -70   33  -54   37   34  -42
   -19   -1  104  -32   64  120   38  -36  -76   12   25   85   14   84
   -37   39   62  -31]
 [  88  -58  -50   29 -114  -16   18   94    7   10   -8    1 -101  -44
    42   56   93    2  -36  113   57  -63   80   -4  -11  -54   85   32
    65  -15  -41  -59]
 [ -13  127   16   63   53    7   75   41   49  -35   62 -107   94  -43
    93  -97   89  -64   35   48  -41    4  -26   81  -15   39  -85  -99
   -95  -60   15   52]
 [  41    9    3   -7  -61  -22   19   37  -70   16 -104  104  -19  -40
     8 -107  -60  -26   91  123  -41   73  -50  -21  -96  -81   76   -4
   -41   -2  -14  -55]
 [  23   -9   29   51  -62    0  -22   56   21  -34  107  -56   96    2
    -2   27  -21  -58 -109   53  102  -43   54  -31  -51   90   38  -48
     0  123   94  -45]
 [ -11  -47   51   38   14  -57  -69   19  -51   53   53  -91  -41  -66
   -25 -104   15   12  -87   62   60   -1 -101   45  -23   -8  -88  -15
   -87   66   52   38]
 [  57   36   65  -19  -62  -36  -68  -59  -43  -97  -68   23   88  -85
   -49   43  -43   52  -62  -94   20  -43  -32  -79   66   52  -20   15
   -39   47  -34  -36]
 [ -15  -17   58   96  -95  -17  114   -1   79   50  -50    4  127    4
    24  100   43   16  -80  -18   91  -76    2   28  -51   23   15  -43
   -98   98  -94  -85]
 [ -93   12  -44   40   60  -88   84  -65  -45    9  -46  -28  -30  -15
    69  -34   18  -30  119   21    4  -41  -80  -42   40   38  -69  -91
   -24   97  -17   84]
 [  22   61   60   81   44  -22  -34   67  -36  -74   55  -57   13  -87
    43   29  -30   19   97  -92   72   62  -32    3   47   12    9   18
   -40  -61  -14  -85]]

[[  24  -71  -67   80   87   21  -57    0    6   14  -86  -53  -89   51
    39   83   21  -53   86   62  -24  -50  -69  121  -80   56   -1   74
   -54   64   24 -102]
 [ -10   21    7   76   84  -44   55   30   78 -107  -12  -89  -93  -52
   -35   39   47  -63  -63    0   26   43  -46  -53  -42  -88  115   53
    35   56   84  -62]
 [  -5   65  -31   -2  -46  -24  -40   75   71  -75   23  -25  -31  -26
    70  -49   86    2 -115   -2   -3  -15   42  -22  -60   81  -46  -24
    81  -53   -9   55]
 [  64   28  -58   67  -70  -28   42    1   36  -21  -63  127   99 -109
    -9   20 -127   90   59  -13  -53   13  -30   31    6  -76   85   24
    36 -103  -14   77]
 [  88   72  108   21   97  127   84   61   43  -50  -37   37   25    6
    70  -20   50   28  -91    8   43   -7   36    9   -4  -45   38  -57
    -9  -53   50   53]
 [   4   40   43   62   61   79  -11  -15   27  -67  -12   25   50   84
   -56   78   11  -60  -54  -37 -111   93   -3   59  -61   48  -64  -43
    89  -28   61   28]
 [ -12  -28  -37  -24   31  -25   44  -69  -16   72   32  -21   62   -4
    -4  -44  -50   10  116  -66   26  -19  -72   35  -59    2  -36   19
    -7  -86   17   -5]
 [ -46  -72  -88  -37  -34  109   56   23  -47 -102   49  -45   -9   65
   -73  -87   78   45   40  -84  -50  -48   28   63   44   21   -4  -55
   -48  -10  -24   92]
 [  74   19   17   56  -62   54   98   65   -2  -99  118   28  -77   -8
    81   62   11   71  -88  -87   44   44   30   -4    0   29   23  -53
   -12   57  -65  -37]
 [ -46  118  -79   11   39   71   52   26  -41  -61   67   15  -46   98
    47   80   91   68   26    4   75   76   48   42   19   69  -67  -95
     1  -11    8   34]
 [  30   13   96  100   28  -58   66  -28  -81  -24   48   69   66   79
    43   18  105   63  -29  -52  120   71   22  -45    9   -7  -17  -32
   -66   50   12  -51]
 [ 115 -112   57  -99 -108   44 -108   36  -77   71   27  -57   66  -36
   -96  -82  -49  -42  -73   -2  -92  -18 -127  -22 -108 -110 -108   42
    25  -26  -86 -115]
 [ -69  -76  -62  -52   -2   17   37   88   30  -19  -98    3  -59   -5
    16   75   66  117  110  -35  -66 -116   19   43  -47   64  -70  -36
   105  -25  -22   41]
 [  66   58  -12   83  -98  -30   46   66  -28  -91   44   -1   66  -50
   -36  -55   32  -32 -119  -36  -74  -76  -37  -39   46   26  -78   54
    64  -50  -83  -18]
 [ -37   -5  -13   32  -58   19   19  -40  -31   59    2   98   39   41
    94   -1   45   11  117  -76   72  -49  -37  -12   30   31  -34  110
    39   59   -1   -4]
 [  37  -68   28  -74   80   63   36   41   14   64   74   72   25   45
   -45  -94  -41  -43  -23  -31   -6    7  -82  -96  -85   64   67  -44
   -51  -59  -79   16]]
[[  95  -32   54  -68  -56 -104  -70   12    9  -93   47  -26   12   52
    17  -18   77   85   10    6   46  -47  -66   76    8   45   83  -77
    55  -70   29  -52]
 [  11  -32   62   87  -32  -50   93   76   44  -49  -18  -79    3  -63
     8   90   47  -40  -96   15  -16   71  -81   11  -10   19   73   -5
   -88   92  -97    4]
 [ -26   29  -74  107  -16   -1  101  -82   89   40  110   36  -21   87
    83  101   84   30   26  100   69  -15  -40  -75  -90   34   95   53
   -88   89  -23  -30]
 [ -42  -47  -56   45   22  -62   -7   10  -80  -23   42   82  -66 -114
   -19    4  -93   79  -96 -100   54  -28   85   13   23 -105  -54   14
    51   72  -95  -72]
 [  80   21   23   81   34   64   29    0   -1  -72   45  -42  -13  107
   -18  -86   34   48  -93   92   25   69   80   44  -59   74   90  -89
    81  115    2   71]
 [ -60   -6   38   -3  -94   53   81   14   74 -101  -47  -50  -86   79
   -43 -100   -5  -41   42  -72   -6  -74  -27  -47   38  -40  -83 -103
     9  -56  -86   40]
 [  54   61  -32   45  -11    4   -5   29   19  -62  -47  -64   44   44
   -95   -1  -36  106  -36   60  -48   38  -26  -51   32   45  -47   -9
   122   19   87   47]
 [  43   15   46   32  -47   53  -28   25   28  -20  -29   56   16   39
   -77   71   63  -10   72  -75   -4  -62    1  -45   38  -44  106   85
   -89  -75   15  -39]
 [  66   62   -2  -19  -85    3   51   19   83  -97  -35  -80  -11   97
    52   66  -22  -44  -72    6  -38 -112  -19  -94  -62   50  -27 -118
  -103    8  -36   -3]
 [ -26   40   63    5  -38   -8  -37  -77  -70   70  -89  -90  -12   52
   -20   -3    9  -26  102  -56  -99  -40   59  -66  -54    2  -19  103
   -36   -8   94  -24]
 [ -30  123   10  104  -26  -32  -23  -33  -57  -44   -8  -36  -57   -1
   113  -50  -20  -86  -32  102    8   65  -69   88  -42   93   66   33
    71   61  -43   27]
 [ -14  -35   47   -5   73   27   20  -22   21  -38   61  -19   15  -71
   -92   -8  -41  -24  106    8  -13  -13  -99 -105  -14 -123   51  -54
   -81   23 -127  -72]
 [ -57  -75   57 -116   48  -36  -76  104  -18  -56  -59   32   71   37
   -89  -35  -17  109  -69  -20  -49   30    5 -107  -73  -85   23  -83
    56   53  -88   86]
 [  69  -12  -69   52  -37   61  -17   40   56 -115  -30  -57   40   71
   -67  -99   53  -19  -58  110  115  -84   67  -74    1   68  105   30
    13   -3  -12   99]
 [  15   82  -22  -68  -94  -51  -62   16   43    9  -52   21   57   -8
    15   -5  -21   34  127  -12   83  -25  -20   46  -26  -29   73 -118
  -114   -7   52 -108]
 [  -6  -39   88   64  -34  -70  -12   72   60  -54  -77   84    8   -4
    -7   -8   63  -34  -24    6  -62  -55   38  -89   43  -19   33  -35
    -6   64  -25  -20]]
[[  11  -26   49  -60   18   17  -23   69   49   63   69  -23   91 -120
   -53   79  -35    7  -41  122  -59   72   22  -18   34  -34   29   49
    88  -24  -90 -111]
 [ -55  -74  -73   50   12  -31   46   35   52  -12   18   54   72   42
   -60   47   -2   -1   20    8   87   26  -21   82   59    1 -113  -78
    21  -80  -82   31]
 [ -22  109   -6   33   10  -36  -35   64   16 -109  113   76 -105   14
    77   39  -11  -71  107   61   39  -25   -9   -5    9   22  -33   12
   -98   21  -61 -101]
 [ -15  -39  -23  -25  -53    4  -25  -31  -48 -103  -24    1  -62    5
    18   39  -12   18  -74    6  -70 -127   41  -25   12   17    3  -88
   -99    5   46    7]
 [ -62  -33   78   27  -83   -8   -1   51   55   58   40   26   40   77
    72  -17   74   78   53    5   55  -39   -5  -59  -38   71   12  105
  -112   37  -41 -114]
 [  54    1   57  -77  -22    1   75   -6   71  -67  -27   35  -90  -11
    71  -42   59   42  -54  -86   73  -98  -11   37   23   13   54   10
    76   -6  -37    7]
 [  66  -80   42   91  -68   52  -42   45  -65 -116   42   34   82   50
   102  -91   57   79  -42  115  116  -39   17    9   38  -92  -65  -89
   -93   87   44   14]
 [   7  -49   34  -13  -78  -16   65  -23  -61   88  -83  -60  -22  -67
    73  -18  -76   98  123   27  -70   24    9   -2   67   51   -9  106
   -84   82    5   86]
 [ -23  -36    6  -30   21   58   88    6  119  -66   22   62   43   22
   -20  -18   74  -64  -73  -64   87  -76  -76   65   68   85   30   58
   122 -109  -23   47]
 [  14   16  -62   48  -43   40  -59   31   24 -116  -49  -27   17  -21
   -41  -28  -62   17  -49  -60   35  -38   -3   40   55  -62   21   23
    64  -37  100  -79]
 [ -31  -26   95  -44  -67    6  112   28   91   56   66   24   -5   17
    60  -23   20  -58  -41  103    5   49   50   69  -15   31   65  -48
  -110   60  -28  -94]
 [  98  -50  -64   28   45    3    9  108   29   40  -65  -71  -93    4
    50   -2  -32   50  -52   57   67  102   57   71  -27    9   17   20
    73  -29    0  -51]
 [   2   33  -25  -74  -39  -51   43   -5   87  -86  -23   58   22   25
   -14   75  -87  101  -95  -26   35  -49  -88    9  -37  -30   -2  -22
   125   24   77   74]
 [ -26   -9   89   38   39  -51   80  -50   -4   29  120  -97    7  127
   107 -101  -19  -88  -12  -49  -10 -100   44  107  -95   58   39  -37
   -61   78   85   87]
 [ 118  -49   95  -59  -34   24   59   45   18  -48  -38   97 -115   66
   -35   52    9  -59   52  -84  -43   20   15   26   15   19  -50  -62
    94   66    6 -127]
 [ -45  -67  -86  -56 -112   53   41   32  -33  -71   80   33  108    3
    29  -14  -38   48   21    4   95   36   13   63  -24  103   47  -89
   -39  -19 -102   63]]



{'name': 'model/conv3/BiasAdd;model/conv3/Conv2D;model/conv3/BiasAdd/ReadVariableOp/resource', 'index': 12, 'shape': array([32], dtype=int32), 'dtype': <class 'numpy.int32'>, 'quantization': (0.0, 0)}
[-1094  -362  2458  -472 -3483   156  -857  5603 -3231 -5057  1424  2347
  -103    40 -1061  3417 -2934  4256  5383   211  5273 -4882  -615   104
 -1356   595   450  1493  2862   468 -1698 -1462]	

{'name': 'model/prelu3/add;model/prelu3/Relu;model/prelu3/Neg_1;model/prelu3/Relu_1;model/prelu3/mul', 'index': 13, 'shape': array([ 1,  1, 32], dtype=int32), 'dtype': <class 'numpy.int8'>, 'quantization': (0.0009828453185036778, 0)}
[[[ 31  21   8 123  12 -20 123  15  70 -41  84   0 -22  40  93  -1 113
    31 -16  -1  57  39 -23  74  35  60  72  15  -3 127  39 -51]]]	

{'name': 'model/bbox1/Conv2D', 'index': 14, 'shape': array([ 4,  1,  1, 32], dtype=int32), 'dtype': <class 'numpy.int8'>, 'quantization': (0.0, 0)}
[[ -78   47  -88  -97]
 [ -35   -4  -67   -2]
 [   8  -52 -121    4]
 [  97   50  110   15]
 [ -35   68   49  -51]
 [  50   83  -92  112]
 [-119  -62  -13 -124]
 [ -69  -72  -48   90]
 [  79   95   61 -109]
 [ -17  -49  -53   88]
 [ -34  -29   90  107]
 [ -31   50   78   62]
 [ -12   -9  127   32]
 [ -36  -56  -86   45]
 [   0   70  -82  -69]
 [ -82 -111  -34   54]
 [  31  120   92 -109]
 [  69   27   85  -16]
 [  51  -98  -55  -50]
 [ 121   45  -91 -127]
 [  96 -105  -81   65]
 [-127  127  -88 -110]
 [  49   64  -91  -14]
 [  12   93   65   58]
 [-127   20  -32  -24]
 [  22  -97   54   49]
 [  54   75    2  108]
 [  77  -30 -120   41]
 [  99  -66   -9  -82]
 [-101   14   23  102]
 [  14   84   30   -3]
 [  69  -59  -52 -113]]



{'name': 'model/bbox1/BiasAdd;model/bbox1/Conv2D;model/bbox1/BiasAdd/ReadVariableOp/resource', 'index': 15, 'shape': array([4], dtype=int32), 'dtype': <class 'numpy.int32'>, 'quantization': (0.0, 0)}
[ 703 -904  104  534]	

{'name': 'model/classifier1/Conv2D', 'index': 16, 'shape': array([ 2,  1,  1, 32], dtype=int32), 'dtype': <class 'numpy.int8'>, 'quantization': (0.0, 0)}
[[ -80  -40]
 [ -25 -116]
 [  55   61]
 [  68 -123]
 [  99  106]
 [ -26  -38]
 [  96 -127]
 [  21  126]
 [ 105   87]
 [ -87  -37]
 [  30  -59]
 [ -55   76]
 [  86  -21]
 [ -12 -126]
 [ 127 -104]
 [ -12    6]
 [  18 -108]
 [  19   86]
 [ -80 -101]
 [ -21   23]
 [ 114   63]
 [  62   78]
 [  42   74]
 [  98  -16]
 [  90   77]
 [ 111  -15]
 [  46 -116]
 [  10  -85]
 [-110  -74]
 [  66    5]
 [   9  -69]
 [  34  116]]



{'name': 'model/classifier1/BiasAdd;model/classifier1/Conv2D;model/classifier1/BiasAdd/ReadVariableOp/resource', 'index': 17, 'shape': array([2], dtype=int32), 'dtype': <class 'numpy.int32'>, 'quantization': (0.0, 0)}
[-719  952]	

